{
  "layers": [
    14,
    16,
    16,
    1
  ],
  "weights": [
    [
      [
        -1.9038172411119172,
        -0.07421935546950342,
        -0.04886251158015869,
        -0.004083539388472631,
        -0.010825585386347186,
        0.041142284814935,
        -0.0552228293621419,
        -0.9757736105664717,
        -0.25267486425916635,
        1.7971727032356108,
        0.5767417313472144,
        -0.12231178970110752,
        -0.04160456934579034,
        -0.32209299371193717
      ],
      [
        3.960985099625691,
        0.04279838788616446,
        0.1622357243373911,
        0.15079874902462684,
        0.05833793644328817,
        0.004643592658117444,
        0.004277083573379345,
        3.171065455692163,
        -0.9193538526865745,
        -0.41137172474434436,
        -0.09414275224571556,
        0.8288496288346796,
        0.14620235988607388,
        0.7341519648483786
      ],
      [
        7.164411009732184,
        -0.04412350361033654,
        0.06996514485062968,
        0.026515162842233302,
        0.016681911077933702,
        0.0622745850596377,
        0.07113311278195496,
        9.601062577569879,
        -0.3321093595540542,
        1.5172840668807133,
        -0.011987162085132683,
        -0.4174078484649289,
        -0.6982708027276425,
        -3.0725776946488907
      ],
      [
        -0.7266351366764493,
        0.25614533539242784,
        0.10748540569743177,
        0.1682293968535879,
        0.12089148983448211,
        0.33104205562798406,
        0.25715083438594794,
        0.6535413817307045,
        0.39475920095539885,
        0.06097394663023084,
        0.3421502506109103,
        0.5016494436842164,
        0.4403647358824881,
        1.0952743892680195
      ],
      [
        -13.236286385367032,
        -0.008858686498661639,
        0.09399588615250803,
        0.09538286509829615,
        -0.016448119965801575,
        0.05462364152528472,
        0.037106828168289835,
        12.210221063532712,
        -0.9177307237281989,
        -0.34309737469212886,
        -0.8357446029637118,
        0.5958740764932918,
        0.3537501955313693,
        0.6752208586962447
      ],
      [
        4.888131515694218,
        -0.05818923350539876,
        -0.06958047622528936,
        -0.09918529752657629,
        -0.061312848313709624,
        -0.11212745754279024,
        0.07651480045702065,
        4.146940980461306,
        -1.3092669449486394,
        -0.3738869999925598,
        -0.7023899011412281,
        0.4957094611934648,
        0.3250907541665024,
        0.026553473003927606
      ],
      [
        -0.7812006732851534,
        0.15499376352885053,
        0.08662452170201558,
        0.011159541379673024,
        0.04239696633062007,
        -0.13668818434909152,
        -0.07884737953073617,
        3.23018172163876,
        -0.7352510190237713,
        -2.2335327792934216,
        -1.0081752279325413,
        0.3181257857595967,
        0.4735545201841656,
        2.4066006436003007
      ],
      [
        13.991595953282735,
        0.05377326352032392,
        -0.023386909518371156,
        -0.05802884844932196,
        0.05447072432534365,
        -0.06954969491431302,
        -0.028068139503102996,
        -15.022822967640247,
        0.115310181237572,
        -0.03770650201222402,
        1.0608734514714402,
        -0.08278237519554643,
        -0.4061034223544599,
        -0.37070804794974943
      ],
      [
        -7.753720708661671,
        0.08852194193523845,
        0.041786128082630256,
        0.11653771837690476,
        -0.008703508751026766,
        0.022101307209447914,
        0.08350055276609919,
        -3.1475411812105953,
        0.9674229882285678,
        -0.38631353716314293,
        1.1936779851507748,
        -0.12185178997919263,
        -0.10947663267418062,
        -1.1026705816965316
      ],
      [
        -0.11980641107922124,
        0.4570577598792361,
        0.5584900105525102,
        0.5026702984740485,
        -0.014410747231929394,
        0.1379066365787811,
        0.4142255458017631,
        0.24021553973256046,
        0.11876322005749053,
        0.7834827570536915,
        0.7203939174936679,
        -0.16767545751952362,
        0.4246197916844817,
        0.8478535002220652
      ],
      [
        4.2426755248877015,
        -0.036769559472868626,
        -0.0649123167867347,
        -0.016708916839804223,
        -0.06617867533974316,
        0.054980442369273984,
        0.05399814260171118,
        2.7427363866793146,
        -1.2968943098243664,
        -0.3208649015124141,
        0.36090428341586467,
        -0.2827635582442605,
        -0.8290261452260069,
        -2.532014810950537
      ],
      [
        3.2343782801855085,
        0.040638990216581974,
        -0.06621302916671903,
        0.07458232379674032,
        -0.028561165418337843,
        0.014284042278210238,
        0.1400515692937625,
        2.0694161224033047,
        0.2527553449415436,
        -0.2626932193676267,
        -0.18621714693741492,
        0.34178648531268024,
        0.7472632088047492,
        0.5593097363882337
      ],
      [
        -1.0522918272412707,
        -0.009142126181284639,
        0.0430233424394414,
        0.04606248303394274,
        -0.010095707141768174,
        0.07834861720432017,
        0.048781564239236026,
        -4.416156530741193,
        -2.619440035185297,
        -1.1647569782205467,
        1.1350508957065055,
        -0.5827140160770515,
        -0.44827152281037574,
        0.8550566221928185
      ],
      [
        -0.7489054170688365,
        -0.16278002836771682,
        -0.10923859646804907,
        -0.1861237956889591,
        -0.09118730093793209,
        -0.023682775080972204,
        -0.0821732245908984,
        -1.4604014162095822,
        -1.4553416892278066,
        -0.621348728759231,
        -0.05046809106323767,
        0.8031816381561893,
        -0.25357478727204225,
        -0.5841964115283139
      ],
      [
        6.682353886168817,
        0.03234471297618544,
        -0.031487698641794654,
        0.01935317336428682,
        0.012342753714494527,
        -0.013388593315033467,
        0.05546682174037827,
        4.533067968704594,
        0.07706410280263669,
        -0.1957566568517005,
        -1.3068775819563208,
        -0.36994998767038084,
        -0.5698551472635857,
        -1.7594978275140358
      ],
      [
        4.439803238274227,
        0.11709007549670655,
        0.03778815972680347,
        0.05395218973584964,
        0.056951485563025796,
        0.1054187190314245,
        0.02645775201352183,
        -0.24137910288345946,
        0.46090586194575334,
        -0.238418068552203,
        1.6748782785776744,
        -0.5195199886332251,
        -0.9265183126191785,
        -1.5273418406023338
      ]
    ],
    [
      [
        0.022633181069806704,
        0.010900708231557598,
        -0.24681205421361513,
        -0.738466789076955,
        -0.038926420386423626,
        -0.011370257710502945,
        -0.8584381281240618,
        1.4601445736643714,
        -0.3783106764470128,
        -0.6114167274115485,
        0.1608801689342011,
        -0.7188078388868154,
        -0.423352104933094,
        -0.11439751853200836,
        -0.4314756987358975,
        0.6455428781473468
      ],
      [
        -0.3215474532563035,
        0.31924975320847954,
        0.2651914356478534,
        -0.2995693630366197,
        -0.7422702300892898,
        0.3821858070290978,
        -0.2995146765275873,
        0.27864828395832286,
        -0.2649950140003419,
        -0.2988241264867453,
        0.6809819737571752,
        0.3957481934110715,
        -0.043560433902416096,
        0.02866090176823008,
        0.415446874089589,
        0.5480717001345117
      ],
      [
        -0.11259936453400382,
        0.3458478920422973,
        0.054365641161474756,
        -0.05081655100567148,
        -0.41893095564750876,
        0.3264540676260047,
        0.06532355404227772,
        0.20655826340430208,
        0.032642333385749026,
        -0.0021686402686969595,
        0.41154341371597736,
        -0.07921837030805351,
        0.13702215423666803,
        0.028107490013319483,
        0.2576753938202569,
        0.5582318239168867
      ],
      [
        -3.204360768919555,
        -1.8320180595346829,
        4.916267587854637,
        -0.7392703334863904,
        0.03547866289755645,
        -1.928679854430976,
        1.683193146968962,
        0.5689501089870023,
        -3.9290460505310096,
        -0.670525752982004,
        1.0920450495395817,
        2.0781320273162365,
        -3.1998877116058697,
        -2.055218443678046,
        -2.720068340743832,
        0.580769559194429
      ],
      [
        -1.0870510549809635,
        -1.0471435226033787,
        -2.718656434164245,
        -1.867842739731364,
        7.168631974430291,
        0.24518604093453059,
        -2.338693192673341,
        7.844235687486998,
        -2.7451640673797164,
        -2.2005247406275372,
        0.1291096264822417,
        -1.4247283267944042,
        -0.06945340613589733,
        -0.548590143548849,
        -1.528116345566463,
        0.1351571035655723
      ],
      [
        -1.537180644776815,
        0.32878703603052745,
        4.753117055463479,
        -0.7647867866384842,
        2.042029467467295,
        1.4480286012575658,
        -3.1432730075811635,
        8.741315907449886,
        -4.49543248366215,
        -1.1654087580494992,
        3.5658786197390144,
        0.5433992368531263,
        -2.000137097278878,
        -1.3261998390847234,
        -2.660615598134723,
        1.9961077269979792
      ],
      [
        -0.12627606951813294,
        0.20645764299978667,
        -0.8106644364392022,
        -0.217727638010094,
        2.770029429932244,
        0.4598255218077916,
        0.664984039726933,
        -2.7291265515344776,
        0.06375419963796038,
        -0.3275995927657703,
        -1.243929425337723,
        -0.8940554133589879,
        -0.5041529140426197,
        -0.8333955950123219,
        -0.2007511252262494,
        -0.7962025863856821
      ],
      [
        -0.1751076725690049,
        -0.28918561311402485,
        -0.139255218052958,
        -0.6241058138036046,
        -0.1737577817341621,
        0.051988398111949725,
        -0.5598728884977641,
        -0.9842952115456601,
        0.06331150584404686,
        -0.46080392205277815,
        0.6027269986804492,
        -0.5633640852627007,
        1.0227979369716675,
        0.6626243670410447,
        -0.24368564039868512,
        0.6189129650143969
      ],
      [
        0.08673305041562974,
        0.4587196057928131,
        0.18673124672188596,
        -0.013603364625213133,
        -0.05585930994271577,
        0.26630915084647405,
        -0.10564328412213937,
        0.1399460248137615,
        0.26735550609002556,
        0.05081183376285841,
        0.3969656294561111,
        0.23877330344636058,
        -0.0866750706650052,
        0.2884353414266185,
        0.13763877245761477,
        0.6630505411735482
      ],
      [
        -0.6395224945172523,
        4.995979944700317,
        1.2750585893644508,
        -0.6159841139811627,
        0.6055098414752159,
        5.875829545022767,
        0.4379296984110427,
        1.2321430053018292,
        -0.9347963907686241,
        -0.21148001394111854,
        0.7562455412342202,
        0.7428065525600727,
        -0.6194014996418495,
        -0.1863305831602931,
        6.056401653504833,
        1.9132408139053179
      ],
      [
        0.13084009418101614,
        0.653500730926717,
        0.21470378504466925,
        0.06131013846414948,
        -0.08672976162336501,
        0.9498065284344409,
        0.3093209241967292,
        0.07270375495653947,
        0.33002900480193526,
        0.4674473644044984,
        0.10137527722236091,
        0.01943143568636146,
        0.020195720539258482,
        0.5068884941608865,
        0.7519028468332086,
        0.6779441409716297
      ],
      [
        0.2480570074420973,
        0.9065548406062264,
        0.5901004531577124,
        0.2608175577871196,
        -0.08630332791707652,
        0.9056397424269804,
        0.11790238456781518,
        -0.3522571768550165,
        0.5641305523882473,
        0.37925327846544493,
        0.0466321802465767,
        -0.2965264275316452,
        0.2495141330342256,
        0.36797266304182785,
        1.0580840613379665,
        0.6385196357142408
      ],
      [
        -3.5464733528862675,
        -1.9590627449503086,
        9.250593731889461,
        -0.36135529008208084,
        0.011695845224748567,
        -2.3714632339317685,
        2.927675897110613,
        3.5271390962721476,
        -7.006527677309364,
        0.1419027783961096,
        3.0038492460425523,
        4.873617281669444,
        -5.1876205395183685,
        -3.2709113238501564,
        -3.070330960391821,
        2.0248398363945452
      ],
      [
        -0.4172441602876802,
        0.24921405388215093,
        7.76803731119492,
        -1.6964254501797793,
        -4.391120619560461,
        0.06472620750389123,
        -0.4935061508626317,
        4.099039842500175,
        -5.130676386373006,
        -0.6832902391076737,
        2.56617788208678,
        1.657274250009705,
        -1.878792870316707,
        -0.36414624378952737,
        -0.09505670911604651,
        3.5627136380333964
      ],
      [
        -0.04271037372553155,
        0.6033632911016544,
        0.2722839956518836,
        0.3675631044586236,
        0.23682159662016952,
        0.26578059216491734,
        0.004190288367600193,
        0.1265241772199911,
        0.35695418702532655,
        0.148418864953509,
        0.21334218545983089,
        0.1839965147839736,
        0.10339496303324,
        0.4367330532338529,
        0.6118381768037757,
        0.37264923272177225
      ],
      [
        -0.6872876487997618,
        -0.3082315391104522,
        -0.2491343681502017,
        -0.8288311599164437,
        1.6534294300767303,
        0.11775010071452476,
        -0.11212945478984436,
        -0.9828870102936282,
        -0.3872583733939155,
        -1.2228144164791748,
        -0.24807653117830358,
        -1.1293360964407548,
        0.41694885373077156,
        -0.22038020519199283,
        -0.6553837539784316,
        -0.049300126849610264
      ]
    ],
    [
      [
        1.0528762924609238,
        1.2223672802760213,
        1.0926861166583324,
        5.288246291463642,
        6.30086138071728,
        8.136570685008474,
        1.8438015341490022,
        1.589329294229655,
        0.9834896387246929,
        -6.732583997350674,
        0.07912399121844138,
        -0.28150222250515133,
        5.789081879032427,
        -8.032712890669027,
        0.4886720817529292,
        1.0145306926956754
      ]
    ]
  ],
  "biases": [
    [
      3.2851664152067137,
      0.2412786999703348,
      -11.315233145406939,
      0.9002802514653466,
      1.5920134603610383,
      -0.6422600472027153,
      -4.104253989830959,
      1.9821215089528923,
      9.494782264459376,
      0.933762078505252,
      -3.818623190357691,
      -6.071066021022931,
      3.565037105592209,
      2.1175439243007994,
      -1.0167976037845625,
      -2.7545662894164056
    ],
    [
      -0.609767074111082,
      -0.08283808088870863,
      -0.03256401196990311,
      -2.0578939983533764,
      -2.477517127081411,
      -1.6888593105292826,
      -0.654252690995142,
      -0.6855429735362486,
      0.30841870475282335,
      -0.17231629041851224,
      0.47440701090958054,
      0.3929503906576043,
      -1.9441431458062373,
      -0.29010317779823025,
      0.4889297893330326,
      -1.0585694096570888
    ],
    [
      0.42164823530180967
    ]
  ]
}