{
  "layers": [
    14,
    16,
    16,
    1
  ],
  "weights": [
    [
      [
        0.9009370265265215,
        0.5788419054190376,
        -0.5611566148592395,
        -1.4085462131701354,
        0.9032543897098114,
        -0.53768702301837,
        -1.4425010638949263,
        1.3017614421984323,
        0.6580512735321474,
        -1.742552592548334,
        -0.49675897750810116,
        1.4157576004836043,
        -0.15184662959198675,
        -0.01496530378705529
      ],
      [
        -0.5018248607821896,
        -0.44681653364867635,
        -0.7945832121443767,
        0.5689429120098325,
        0.2958854438251152,
        -0.014823843565075942,
        0.8758996828487279,
        0.32488081392055723,
        0.9708821823950529,
        0.1973247895103601,
        0.14845146953625987,
        0.7233413189088771,
        -0.3723839620282596,
        0.05867815965090233
      ],
      [
        -0.9822514447492617,
        0.13075610351093747,
        -0.3327736927966484,
        -0.7943775486167448,
        -2.1883942283894195,
        0.5620630843490255,
        0.11957738190007647,
        1.4375975585609713,
        1.481238599064121,
        1.4833868233574048,
        -1.4365413703241547,
        1.1511058480901675,
        0.561012277987224,
        -1.404161024993029
      ],
      [
        1.4372067824157366,
        1.192746216842855,
        1.011160321070038,
        -0.46262457994455286,
        0.6795606737891161,
        0.3062004563973052,
        -0.6696513723882336,
        -1.1290589596241576,
        -0.7502052165836985,
        -1.1604950046893001,
        1.1774963804577658,
        -0.9286630821953096,
        0.34966989489471,
        1.7865957972033457
      ],
      [
        -0.1257914338472918,
        -0.4044460076123133,
        -0.0864372679009015,
        1.1886270968685622,
        0.25026758531238996,
        -0.12821622040152397,
        0.7149500131782648,
        -0.6125906054673611,
        -0.2698740310570695,
        0.5993788550305534,
        0.32388989156126774,
        -0.3972942871201072,
        -1.2328440268865979,
        -0.40017436775536047
      ],
      [
        0.9447407829457726,
        0.6914415160027755,
        1.411078456695869,
        -0.9004261043610141,
        0.03074717753894877,
        -0.09972270801594947,
        -0.9435755934888,
        -1.0615864591556168,
        -1.5978964103894666,
        -0.5893677817662858,
        0.5170837248057353,
        -0.9603259586949123,
        -0.28463642390573524,
        0.7069452930537946
      ],
      [
        -1.7945239221881388,
        -0.3267660168388902,
        -2.010134474633633,
        1.4192192736991396,
        0.16684665424308298,
        -0.4170508552682238,
        1.8389586201377242,
        1.2757410921664625,
        2.9011928146572625,
        0.15758540490865414,
        0.20580099421767184,
        1.033808436051096,
        -2.621660896327375,
        -1.0436632871084353
      ],
      [
        0.4775127355589796,
        0.2968399134104688,
        0.8934215326634969,
        -0.40613684545630074,
        -0.6499599589934626,
        0.7919635261416134,
        -0.5184422218103368,
        1.0819612737999167,
        -0.0429099684141975,
        0.7658855355216055,
        -1.0999828529386724,
        1.134283286942873,
        3.531646773076956,
        0.6084808267421412
      ],
      [
        0.6742243252826001,
        -0.2577165413739817,
        -0.47905881232915054,
        0.7121875601781993,
        1.4042532179497036,
        -0.4600489987385883,
        -0.18551823778633986,
        -0.7383232151446225,
        -0.981531113203788,
        -1.4232163912968354,
        0.8822244872496153,
        -0.6446751788567125,
        -0.38027903498435667,
        0.9250661323669774
      ],
      [
        -0.29555002094540445,
        -0.5494909485962599,
        0.11471526220442461,
        1.4530783538906458,
        0.1550657308962942,
        -0.008676633400855558,
        1.1731839606050511,
        -0.6305351640438398,
        -0.7237572414284636,
        1.3086895162755035,
        1.2200610882743135,
        -0.5844121353375611,
        -1.173139693217552,
        -0.4618761956413654
      ],
      [
        1.080130507750271,
        0.2623438720872809,
        0.5253796454136312,
        -0.07087581013931482,
        0.7879865526082958,
        0.029007526400765763,
        -0.5316142351355254,
        0.8353938067043726,
        0.31294142182803,
        0.4630869390060464,
        -0.3523623440208226,
        1.0684299726160165,
        0.7276282449915513,
        0.031841400601883674
      ],
      [
        -2.1808796875204837,
        -1.2155337717046197,
        -2.066893635089397,
        1.8103538531186323,
        -0.05309265783267843,
        -0.09179826349862756,
        2.4374091361457877,
        1.7772710017582793,
        2.883290961442492,
        1.038532991177197,
        -0.6697015592259303,
        1.5052351134471977,
        -0.539425980287928,
        -0.9811541867896174
      ],
      [
        -0.3107479068852927,
        -0.1821782690554097,
        -0.7190703518938361,
        0.5520017689849354,
        0.6567766868522884,
        -0.8465854209018885,
        0.20350461256165842,
        -0.9883723024099936,
        -0.2484600768639469,
        -0.41813886543913853,
        0.8344642993760794,
        -1.1727829959624145,
        -3.2417224564152147,
        -0.6327666678820697
      ],
      [
        -0.19028342679387888,
        -0.49086735119388625,
        0.13038491957250625,
        0.9773937488234488,
        0.04316412989256423,
        -0.25396514191598507,
        0.37458161205976104,
        -0.2263120846486818,
        -0.004657966610307287,
        0.2060629997997735,
        0.3211967234750025,
        -0.025652088007763408,
        0.17147446644324602,
        0.17811526728007412
      ],
      [
        -0.28710855994082735,
        -0.16658002654639123,
        0.29769933779158075,
        1.2095389459078683,
        -0.144743697752441,
        -0.1767274474592175,
        1.0931577886775725,
        -0.6944967360218223,
        -0.6254741610392944,
        0.9483310345088597,
        0.5234182036721385,
        -0.6726335972841603,
        -0.22642646669668687,
        0.2164522664223984
      ],
      [
        -0.4658157394281977,
        -0.4714062114395563,
        0.28293903610835197,
        1.6126799464020807,
        0.189098600858882,
        -0.32316158426794184,
        1.5192037805397454,
        -0.7776258272151463,
        -0.6781572604801696,
        1.2921805452582924,
        2.1116002782631833,
        -0.8207814797380413,
        -1.6541720099887363,
        -0.09995764193735059
      ]
    ],
    [
      [
        0.11525764698789326,
        0.3239882865060676,
        -0.8237236692179557,
        0.13779584534468012,
        -0.1430133255011433,
        -0.558061419376834,
        0.7329215763697479,
        -0.5627541096177971,
        0.0360925530423341,
        -0.505066767082599,
        -0.6463349982083164,
        1.3338081600242826,
        -0.013195898926315676,
        -0.05286931507509183,
        -0.5439632271622488,
        -0.42671663243145647
      ],
      [
        -2.3156532649707664,
        -0.1912153337670919,
        -0.6132067942553842,
        -0.3393478964377145,
        1.8041842234265741,
        1.4660406354437379,
        0.29199573957564007,
        -0.9681576682890447,
        -0.2921767128845789,
        2.7630466934490663,
        -0.769719245892462,
        -1.3612264677257842,
        1.4261529638398391,
        0.359791349551165,
        1.3372553591554557,
        2.8483927459300427
      ],
      [
        0.4013112400092124,
        0.4075077386743089,
        -0.27363314663333305,
        0.6347245038710095,
        0.3392841116408743,
        0.28711877188727014,
        0.35965733196209076,
        -0.14060407641844386,
        0.4068273270846207,
        0.14934517499456523,
        0.11440469095507848,
        0.6491296553238395,
        0.557966320327599,
        0.3491516168736562,
        0.3591523567340946,
        -0.06837917681589181
      ],
      [
        0.8209995830463346,
        0.13349500001524245,
        -1.6529781929653486,
        0.5309885778143185,
        -0.1402661059775013,
        -1.370858482305045,
        1.4110086346452018,
        -0.4058365091994144,
        0.45985277366389726,
        -0.5866264519948368,
        -0.8637807999686019,
        2.5156482390726556,
        -0.10270207466041918,
        -0.025792850298291037,
        -0.8530307619044759,
        -0.9671520524221605
      ],
      [
        0.510316177336682,
        0.2737111235895746,
        -1.283690790909212,
        1.372114499275079,
        0.5209622137172946,
        0.25632643088402157,
        0.38234461126263775,
        -0.6216812602513213,
        1.1478580070208748,
        0.004311691502456856,
        -0.10642687455595533,
        0.6048598495750294,
        0.6930775020419998,
        -0.00808832929553938,
        0.15471166088863836,
        -0.30750904581983673
      ],
      [
        -0.2309925846580461,
        0.2528579361400414,
        0.08309468696361148,
        0.37887752686714876,
        0.20157040597109413,
        0.48179735471667107,
        0.28379201169336404,
        0.14008052425826462,
        0.4189518763109653,
        0.48368093666592726,
        0.2580704218774592,
        0.1620693429879681,
        0.10305562600540816,
        0.12878108515761322,
        0.6153415662541486,
        0.7988064590540943
      ],
      [
        0.06040544347621995,
        0.19386155891994386,
        0.2472064335026619,
        0.6364734311136342,
        0.15091196170044374,
        0.07182194843640198,
        0.47864430952578235,
        -0.05101070969797766,
        0.31078078928749625,
        0.4067075718932723,
        0.3230059443018617,
        0.23994119923892424,
        0.3189238897431264,
        0.07922991052036578,
        0.4886516614505414,
        0.6054905679176673
      ],
      [
        1.1758043184992941,
        0.21996145818910243,
        -3.0039094289077513,
        2.375257248882641,
        0.6527654278305903,
        -0.2636735980473386,
        2.8719839536347562,
        -3.354529343124913,
        1.7036942518507383,
        -0.10610611491207235,
        -1.1732506079237357,
        2.250153405154243,
        3.06537572321443,
        -0.48469581139104173,
        -0.6101937037731925,
        -1.2730317709550822
      ],
      [
        0.5426751124923896,
        0.2644176697329622,
        -1.2698874371683722,
        1.378375121948893,
        0.23177185670346018,
        0.0768369300882866,
        1.0767525275654073,
        -0.9648044813983904,
        1.003533594983208,
        0.08931557761921348,
        -0.2788497004801468,
        0.9640158914405652,
        0.839228136396286,
        0.19993469385014645,
        -0.07171557875205593,
        -0.3224598724183167
      ],
      [
        0.044810553438215474,
        0.43608354757606466,
        -0.3696483153790503,
        0.6103364392538757,
        0.22333938289831667,
        -0.054182688291188344,
        0.8864262051139322,
        -0.16014102195875007,
        0.659454661046587,
        0.1428310235375413,
        0.15514703385492915,
        0.8042480838886663,
        0.7133498933930861,
        0.4354162588312001,
        0.2835417749236571,
        -0.14086803396347686
      ],
      [
        -0.09176420264894189,
        0.06210655264072124,
        0.3992034614378971,
        0.40261580950722436,
        0.2862308386334282,
        0.30050138150712147,
        0.23946047590860514,
        0.10418023051656283,
        0.42501046783901425,
        0.20182963981072224,
        0.37780680034856945,
        0.34385308902572137,
        0.17479665002660436,
        0.41875471281360266,
        0.32475737809919547,
        0.6191825162822628
      ],
      [
        1.1299468762771048,
        0.5078954198295703,
        -2.044477689154289,
        1.1056925007628833,
        -0.5170704267983456,
        -1.5160060134961366,
        1.7498832701898337,
        -0.6571471773349672,
        0.5905386018505802,
        -0.6726958369410617,
        -1.3645571563890457,
        3.583438600875193,
        -0.06360518388501385,
        -0.15151359358595937,
        -0.9066830889344121,
        -1.3735608592019621
      ],
      [
        0.15445028064200797,
        0.3566621811028606,
        -0.10364574676155056,
        0.3496506249299741,
        0.31860197993899125,
        0.40783271952146544,
        0.05980113343971188,
        0.29764538721936534,
        0.10317107337115974,
        0.6818667010519899,
        0.21996850126062667,
        0.36604410519723246,
        0.5046607709553089,
        0.2379877061049959,
        0.3442364711737591,
        0.5143671011326577
      ],
      [
        -0.8304883366580554,
        0.023839061082460488,
        0.021104141432080555,
        0.04277333877891761,
        0.5212754674589635,
        0.6226636597680559,
        -0.06175465839774367,
        0.04137727553800424,
        0.09896427340752086,
        0.9316627037335231,
        0.2938901488900384,
        -0.6334028934096452,
        0.08585405930399627,
        0.5874323830565531,
        0.3510680126031602,
        0.6616210306835788
      ],
      [
        -0.9280729144749705,
        -0.11351380354324998,
        -0.11700563655762947,
        -0.13890205998201732,
        0.6594618039383663,
        0.6398886921692272,
        -0.061000163918722886,
        -0.1029051084540032,
        0.020854771735513564,
        0.9141552695106275,
        -0.24296375942251136,
        -0.6219631851526181,
        0.5211163907073596,
        0.5370770273591996,
        0.823964052756614,
        1.3131201436025886
      ],
      [
        -1.4617458523381432,
        -0.22560279256263965,
        0.2110253671290901,
        -0.4402861445982257,
        1.026719911051001,
        0.6737680329677261,
        -0.10537298584720534,
        -0.406542679349068,
        0.028356152536871394,
        1.2465002085569887,
        -0.16333793707307748,
        -1.0125716610005076,
        0.47240952771559264,
        0.440688541839034,
        0.9359562921634146,
        1.5268655245499958
      ]
    ],
    [
      [
        0.9809855409477686,
        -5.74275678562624,
        0.7626654383636144,
        3.141228179438761,
        1.7986754406683925,
        -0.5161600509254787,
        0.05468413002659365,
        6.442721878224693,
        1.9228788773187009,
        1.0226921859842732,
        -0.25944946851126643,
        4.8723254405510525,
        -0.07631014277701102,
        -1.2792802296001307,
        -1.8049215229615647,
        -2.75635610108994
      ]
    ]
  ],
  "biases": [
    [
      -1.2664116753908587,
      0.6232188313075993,
      0.19368371770368112,
      0.39880936925263233,
      0.3790264538541399,
      -0.534015418544684,
      1.3620356300007037,
      0.02952162811484424,
      -0.08357627049009159,
      0.8644002173234632,
      0.12969023322303339,
      1.1497319645963,
      0.08677771539495119,
      0.21429213514553255,
      0.6476538914345314,
      1.326584974651509
    ],
    [
      -0.40786617112912155,
      0.5928481182536143,
      0.34119824304813834,
      -0.8705039761618535,
      -0.18896650570442583,
      0.47636373337440635,
      0.369660538920528,
      -0.9614098339838092,
      -0.21357808446906978,
      0.01903066183856344,
      0.7115007670562071,
      -1.0411515568949916,
      0.35735339920480264,
      0.45487704990265804,
      0.28290439415554514,
      0.19725759876219626
    ],
    [
      -0.4383880560961346
    ]
  ]
}