{
  "layers": [
    14,
    16,
    16,
    1
  ],
  "weights": [
    [
      [
        -0.009569612003841805,
        0.16998226056520088,
        -0.03363411330478266,
        0.10140902431326006,
        0.3795473312720708,
        -0.02091457627654484,
        -0.014728730494859905,
        0.14930671098828688,
        0.0028165663086739106,
        0.107001739623087,
        0.20399686559106628,
        0.21046189557747916,
        0.40017234393477363,
        -0.2587417755126189
      ],
      [
        -0.2184365092220271,
        0.36499334452121246,
        0.11477339628719313,
        0.04409031341387004,
        0.08324531039112226,
        -0.04975459361010436,
        0.030067258852524533,
        0.3282036915871717,
        0.10751776414323529,
        -0.18561316101269654,
        -0.055973187629195925,
        0.3921509961615944,
        0.3252487861289938,
        0.21772702186018755
      ],
      [
        0.6102045000156443,
        -0.4304216320768704,
        0.035884691983033,
        -0.34210424120044364,
        -0.3557367508572412,
        -0.2418048765618979,
        -0.257227293381332,
        -0.3429466581276141,
        -0.18907900045740952,
        -0.05703893012233801,
        -0.19838272411150057,
        -1.0894116717816071,
        -0.57661660377011,
        -0.7151595260643662
      ],
      [
        0.061918909041897,
        0.19116962331514395,
        0.18943915963636082,
        -0.007147254420070449,
        0.4321908992231573,
        0.21807712332818074,
        -0.24182826414876962,
        0.19148244597087805,
        0.17595491596725107,
        -0.07140513829612849,
        0.3279596610851555,
        0.24470547162285808,
        0.25639641098813254,
        -0.09546308981855549
      ],
      [
        -0.09762777501860351,
        -0.13307364831126486,
        -0.018742948494410112,
        0.36763952373266706,
        0.1253896796880564,
        -0.02550744094693208,
        -0.015946611157231966,
        0.4445427462655353,
        0.31330699900289133,
        -0.11619893440641509,
        0.3679498692086468,
        0.01449808537744743,
        0.5186981211497902,
        0.17930448259104337
      ],
      [
        0.6085103971580889,
        -1.1121965558982878,
        -0.7140840718436937,
        0.5873292519816788,
        0.028701243597965415,
        0.2466850531421222,
        0.8934135958589693,
        1.3589224644981202,
        1.0441081716062928,
        0.7118581241551005,
        -0.35981946184526536,
        1.0038178296417593,
        1.1148233848327087,
        -0.5975787063686647
      ],
      [
        0.037656155957335076,
        -0.09173634689997445,
        0.07869329505280796,
        0.21258040851672882,
        0.11251722256249644,
        -0.04778087364824177,
        0.23370357446580084,
        0.5440695629148551,
        0.14234306820675113,
        -0.014796961227507748,
        0.10748125054708026,
        0.5848829757683586,
        0.2005618847997623,
        -0.10949435549074762
      ],
      [
        2.2854732320611855,
        1.8138222202778356,
        1.736849379611918,
        -0.7480966539755942,
        -0.4376604820476325,
        1.3218643920456437,
        -0.4627257697776334,
        0.5002461357267847,
        -0.5391778529788622,
        -1.3285663265497503,
        1.2081511386879402,
        0.22684580481820632,
        -0.3416569289741906,
        1.537096368681636
      ],
      [
        -0.007075819801844384,
        -0.5049038150090142,
        -0.04892262549205106,
        0.2731013359865038,
        0.6845615757474439,
        -0.2116774329220091,
        0.1397349284338912,
        0.8570410832288275,
        0.6943243316842833,
        0.25407106146587527,
        0.05925926013983118,
        0.05150455381687601,
        0.7445154110621837,
        -0.6758172828424264
      ],
      [
        3.2252960157010966,
        -0.14682142125139888,
        1.1895995914764976,
        -1.2225937235955493,
        -0.6560599998045018,
        0.009514935267644449,
        -1.3821267890023283,
        -0.48395598722122457,
        -0.01650753866732938,
        -1.4250686453762285,
        0.9003303534224152,
        -2.5572187272551536,
        -1.8799503707856002,
        -0.6626234214784326
      ],
      [
        0.1893171278873317,
        0.28733676214544035,
        0.10416117396891696,
        -0.29653982156311953,
        0.4945670393408482,
        0.5237719758891005,
        -0.5471349424515113,
        -0.2376248653658963,
        0.4198096742488722,
        0.12671518492862507,
        0.149861790252624,
        0.010170042554345003,
        0.3509190548462848,
        -0.011303227040362044
      ],
      [
        6.600999972677014,
        2.380508624978343,
        2.2472590609468566,
        0.6162787601840155,
        -0.04388445963810626,
        -0.3483090709518482,
        0.5984087216470417,
        -1.7105592141032682,
        -1.44539108555002,
        0.3029497656829587,
        2.496098130723129,
        -1.5196553029076594,
        -2.552166232971404,
        0.3002307838362878
      ],
      [
        0.7112505948776874,
        1.0933288618552162,
        1.0067692330603932,
        -0.2742159712380989,
        -0.18979856339189385,
        0.49123333951441583,
        0.016972837187835158,
        0.2915076505938757,
        -0.33469374281900677,
        -0.5995023974288316,
        1.0714933611574284,
        0.7235734042690132,
        0.062120279630695246,
        0.5223174327799914
      ],
      [
        0.1153827926241066,
        0.018639700154047117,
        0.0996433396418759,
        -0.17205898323294114,
        0.29858034430343194,
        0.19652991831738156,
        -0.14455183187003365,
        0.1329630542729428,
        0.2361360340084497,
        0.2104021684660893,
        0.29608854595158085,
        0.2728595256794414,
        0.00887776208035146,
        -0.002144566489800216
      ],
      [
        0.2424472463312795,
        -0.4052447955741978,
        -0.29926873716461855,
        0.008420722095101047,
        0.049851860998932684,
        -0.1316408055094306,
        -0.45680746520419824,
        -0.27587209540536667,
        -0.2535038862493853,
        0.14559709591755668,
        -0.3243183749876604,
        -0.7070306901703218,
        -0.16743819087901513,
        -0.08946344651126877
      ],
      [
        2.0039465634555915,
        -0.4361251198717358,
        0.8698832377772743,
        -0.14437223534683005,
        -1.3948810249848884,
        -0.09030543746139853,
        -0.23807452345010743,
        -0.7621279031733121,
        -0.5117577241487056,
        -0.16193100615677478,
        1.5066811842840675,
        -2.356378644569559,
        -1.8345758297089305,
        -0.6731488081834859
      ]
    ],
    [
      [
        0.025645077261489634,
        0.05311994143527702,
        0.5108890404520599,
        0.4537031861718846,
        0.1181966610909936,
        1.0642596640599478,
        0.45087207577718696,
        -1.0790557408265333,
        0.28548664635373194,
        1.0937933011975698,
        0.4225456326346359,
        -2.1108331891115877,
        -0.4517423915669564,
        0.005834588174409607,
        0.2415289212279748,
        1.0666123420823885
      ],
      [
        0.28684154217492164,
        0.28376957418184573,
        0.2591401218795406,
        0.05370984289305566,
        0.21261006432790375,
        0.0207924013693143,
        0.029049404659560137,
        -0.012532309260575454,
        -0.12022452428850497,
        0.1696250065393725,
        0.30703249459966314,
        0.17877475683460387,
        0.2717067134392352,
        -0.061820084854838066,
        -0.1759214759628915,
        0.09609423673749218
      ],
      [
        -0.08044288663445505,
        0.07616339480170412,
        -0.04129248156391058,
        -0.04900513234469286,
        -0.2887750284874924,
        -0.8114255744170602,
        -0.20001923714884765,
        0.9424359179743226,
        -0.6078416466247154,
        -1.0454280204245183,
        -0.09977178928297355,
        1.775649440371551,
        0.25520399229455837,
        -0.3344903613664145,
        -0.12679367432470612,
        -0.7108549734137727
      ],
      [
        -0.17801785457219707,
        -0.3242181666033761,
        -0.34084393836618576,
        -0.40223994164508914,
        -0.5453757719919055,
        -1.0342004124399584,
        -0.08917387593995131,
        1.319976835225292,
        -0.5783397219701704,
        -1.6260731128164938,
        -0.2861930320414418,
        2.947910393893113,
        0.49726110039885957,
        -0.14509852634981468,
        -0.13487369594262028,
        -1.2112053383878707
      ],
      [
        0.10045193257637965,
        0.01971756970402502,
        0.28382622479792036,
        0.02146506594650088,
        -0.08062375614128454,
        0.45253066209078474,
        0.17398876784728914,
        -0.19149851383971414,
        0.47076664826063125,
        0.46736376697943655,
        0.3676920475258388,
        -0.8569699089782167,
        -0.3295151018512045,
        -0.0205596742598511,
        0.203673381735853,
        0.446454526254195
      ],
      [
        -0.308731951864716,
        -0.06388308943115448,
        -0.2448907064436236,
        -0.27416084906501265,
        -0.02606781920200482,
        -0.5665102936202573,
        -0.009830806109252127,
        0.6555763558141606,
        -0.31199142343850167,
        -0.6175065520094059,
        -0.19359191275668866,
        1.3789337211614248,
        0.03548139131112073,
        0.05818012854865021,
        -0.11543074418679704,
        -0.5048482118053228
      ],
      [
        -0.09599370603199218,
        0.1350680394145096,
        0.3054703916801851,
        0.07474296822632877,
        0.28331775845888924,
        0.889578753094618,
        0.021462938331099923,
        -1.093040754194143,
        0.553043361567697,
        1.0160448283091463,
        0.4951203763142922,
        -2.175954634098351,
        -0.18399794975368675,
        0.14508689638206562,
        0.1935421126627576,
        0.8338013220635674
      ],
      [
        0.26110375906799854,
        0.07005032481153588,
        -0.06936727191702051,
        0.17603891070419672,
        -0.01864059052443662,
        -0.24229158442635967,
        0.19815654878507494,
        0.31235670538072274,
        -0.03008389266796264,
        -0.42931124489858424,
        0.14040889291651884,
        0.28127780895789956,
        -0.05405534836737325,
        -0.13033537766267947,
        -0.2541819186387223,
        -0.2630473622810253
      ],
      [
        -0.40405812278566866,
        -0.1035605891880219,
        -0.2670316138972748,
        -0.09077330063704646,
        -0.6452021203905206,
        -1.0272067888183771,
        -0.04583487459304572,
        1.2257495963694902,
        -0.41942073480226605,
        -1.7588275938575924,
        -0.612313903386089,
        3.1636094314164334,
        0.33684991648180107,
        -0.23750290514169514,
        -0.3089289588187637,
        -1.3161206014512652
      ],
      [
        0.1921428774584825,
        0.04326278610647557,
        0.2832993523612362,
        0.19489447862506026,
        0.28597940483800366,
        0.6458473198786194,
        0.004774624482716463,
        -0.7682138565231991,
        0.6501801916970469,
        0.7666013563671762,
        0.5119697895966024,
        -1.8243251775434528,
        -0.34345781926624386,
        0.16814524160757038,
        -0.06351633770682959,
        0.6435517962575567
      ],
      [
        -0.2524978894928077,
        0.05607727588532343,
        -0.3653357377525021,
        -0.4469673324526274,
        -0.10628740644507288,
        -0.82750069778065,
        -0.23536591867322848,
        0.9491718297344508,
        -0.6481363306907585,
        -1.0057177177122805,
        -0.138294821954832,
        2.028527953568262,
        0.4043815663849964,
        -0.027204326917648194,
        -0.2050887847219477,
        -0.4586817823602679
      ],
      [
        0.20852877978865664,
        0.11062555702339041,
        0.23620094648989867,
        0.23763138465454395,
        0.29189307298720113,
        1.0737822053853814,
        0.2127159484536004,
        -1.2043557954298099,
        0.5888129355263109,
        1.4719716786853763,
        0.37682655589812775,
        -2.721409878616222,
        -0.4424954697373609,
        0.34428963352219416,
        0.22845017258565564,
        1.2239272381388706
      ],
      [
        -0.010847636979533387,
        -0.18724784045077872,
        0.0402463396962851,
        0.18310630188671057,
        -0.0939105509516232,
        -0.2631806309916284,
        0.14974618277446647,
        0.4253901675432754,
        -0.08577863703613023,
        -0.3824526991697619,
        -0.16693764395426094,
        0.28801671468750445,
        0.35427120067443174,
        -0.00599897919838757,
        0.031732808493840026,
        -0.3774253542472522
      ],
      [
        0.20165547334789527,
        0.2373124244761894,
        0.10882072837158871,
        -0.0332314774966435,
        0.10760067132817955,
        0.4465870930716831,
        0.15344692330988624,
        -0.3255764363850632,
        0.3003231836529445,
        0.2685465210695921,
        0.10494589425876695,
        -0.7311802159331454,
        -0.2128169625939042,
        0.3023144356335553,
        -0.15350565911131644,
        0.4429578084643057
      ],
      [
        0.286070946130241,
        0.22411545990269535,
        0.207101068625322,
        -0.06572289781048969,
        0.33382979235623084,
        0.22236111911658263,
        0.011866740452585886,
        0.15773506354155437,
        -0.10496543861227486,
        0.10853467647260837,
        0.19949568935249457,
        0.15418543413292046,
        0.12184763604162471,
        0.24673226068456078,
        0.1918023810640532,
        0.18960977522367853
      ],
      [
        0.06570574904496619,
        0.17326977132679205,
        0.058644724860096205,
        -0.024220003528415395,
        0.1605585621334347,
        0.13637051242608433,
        0.34804697469225876,
        0.17934738807780748,
        0.1309531743138563,
        0.04138321452030801,
        -0.13659178584504747,
        0.0811584737561732,
        0.1649261347545973,
        0.28048954574248913,
        -0.15466206545428604,
        -0.20528839930630186
      ]
    ],
    [
      [
        -3.0468333504089027,
        -0.27214950820501166,
        2.2102254683609996,
        3.527147325051792,
        -1.4357367335568232,
        1.5665678640675837,
        -2.971042731253372,
        0.28932680699921515,
        3.6914595929843714,
        -2.5176618525150722,
        2.400146733858257,
        -3.6571464743902777,
        0.43127916048042575,
        -1.320803692993971,
        -0.35612751954513294,
        -0.20529631820206778
      ]
    ]
  ],
  "biases": [
    [
      0.024523030124040834,
      0.0762295018318183,
      -0.3103418419958018,
      -0.2638981349311314,
      0.3244435646861603,
      0.5725236971875318,
      0.1990028435356886,
      -0.005361817105581641,
      0.3008409560711686,
      -0.975979543909294,
      0.28102576019174685,
      0.7582788719400714,
      0.44710108987403036,
      -0.10320727314120812,
      -0.3808980935626503,
      0.13765602399702065
    ],
    [
      0.1790638871630546,
      0.2376937538606879,
      -0.08252782006387957,
      -0.3757937841392341,
      0.18491506631032592,
      -0.2238548900139616,
      0.39666826224807106,
      0.21791476105966148,
      -0.3563875517717624,
      0.14633824109290944,
      -0.2947086888326256,
      0.2161984050523668,
      0.1686857645676732,
      0.16122702509555498,
      0.06339756853651975,
      0.0164502124047275
    ],
    [
      -0.8700384934218067
    ]
  ]
}