/**
 * model_export.js  (AUTO-GENERATED — do not edit manually)
 * Regenerate: node ml/train_model.js
 *
 * Usage:  PawML.predict(userPrefs, pet)   → number [0-1]
 *         PawML.rankPets(userPrefs, pets) → sorted pet array with .mlScore
 */
(function (global) {
  'use strict';

  const SPECIES_MAP  = { dog: 1, cat: 0 };
  const SIZE_MAP     = { small: 0, medium: 0.5, large: 1 };
  const ENERGY_MAP   = { low: 0, medium: 0.5, high: 1 };
  const SHEDDING_MAP = { low: 0, medium: 0.5, high: 1 };
  const ALONE_MAP    = { low: 0, medium: 0.5, high: 1 };

  function encodeUser(p) {
    return [
      p.wants_dog !== undefined ? Number(p.wants_dog) : 0.5,
      SIZE_MAP[p.preferred_size]          ?? 0.5,
      ENERGY_MAP[p.preferred_energy]      ?? 0.5,
      p.apartment_friendly !== undefined ? Number(p.apartment_friendly) : 0.5,
      p.has_kids !== undefined ? Number(p.has_kids) : 0.5,
      SHEDDING_MAP[p.max_shedding]        ?? 0.5,
      ALONE_MAP[p.alone_tolerance_needed] ?? 0.5,
    ];
  }

  function encodePet(pet) {
    return [
      SPECIES_MAP[pet.species ?? pet.type] ?? 0.5,
      SIZE_MAP[pet.size]                   ?? 0.5,
      ENERGY_MAP[pet.energy]               ?? 0.5,
      pet.apartment_friendly ? 1 : 0,
      pet.good_with_kids     ? 1 : 0,
      SHEDDING_MAP[pet.shedding]           ?? 0.5,
      ALONE_MAP[pet.alone_tolerance]       ?? 0.5,
    ];
  }

  const MODEL = {"layers":[14,16,16,1],"weights":[[[-0.2647271423273409,0.1509651316868533,-0.1636737872730708,-0.15757165173514406,-0.20619462186604828,-0.07655246503701225,0.07152763409283645,-0.05529336665116504,-0.07275621391332328,-0.1202326207426598,-0.13353147540339122,0.1657243766384388,0.1470073910279153,-0.086728268771105],[-0.5673984485961611,-0.17453212639877863,0.07309930613085724,0.5084094863345794,-0.02296583539545858,-0.2635851971949971,0.3125187213326631,0.27089478329398453,0.1581028275216519,0.1339392178363987,-0.11710113211958907,0.09826299630234302,-0.23298337585024648,-0.05212478715874342],[-0.31408900101399895,-0.3964767941054571,-0.37208201556044573,0.2980559473123661,0.11715178359778596,-0.009615053564038703,0.2093765803414655,0.02626324419983677,-0.0531154505978466,0.48855025935820723,0.21428403657239783,0.037878325692909026,-0.17112254289320059,-0.30678617674600395],[0.6756966185504818,0.553357350475309,0.16920834110524305,-0.5814085431105627,-0.17438687257821167,0.36373625056539866,-0.9050534819323038,-0.0342701048360856,0.18637416026162393,-0.721763796653148,-0.6946326500876608,-0.4952199174349716,-0.16366724931453408,0.8085105350856793],[-0.17254420175264198,0.0439155303164521,0.12038806940414548,0.14254263018779298,-0.36307912239863155,0.31086346089509465,0.13362105299796667,-0.002428839686469528,0.45977228501359624,-0.0663422779317042,-0.18273550331024058,0.006016839684426233,0.26320357900390967,0.6005278175424037],[3.3120145845620033,1.0502882290930735,0.5342791619733939,-2.0107339740685903,0.03190963817534017,0.01019089610805319,-1.449119062559955,-0.6085870738078346,-1.9048523810057316,-0.35138165528866794,2.261264256869617,-0.1312759488919515,2.0017885064484044,-0.932607176354192],[-0.5727236578681402,-0.12793400136818295,0.01390743017246608,0.3894899998771372,-0.04665601816089638,0.1382317066167988,0.13497495665967324,0.38118683095448824,0.035671313113777435,0.2710684635431683,0.037906454523191434,0.1710191833073689,0.11086194793119579,-0.3920525377552557],[-0.06588591755212167,-0.3955492494040709,-0.23431294205300757,0.4339187060543049,-0.1668452255703902,0.020195521344029313,0.38296702961514445,0.05841346771432615,0.08765740427086842,0.45211186684529764,0.25779371910809956,0.3506476223583083,0.15002238973671506,-0.1949305118712916],[-0.28701450845653215,-0.31313017656284675,0.10530122552340822,0.2765176585863696,-0.30018902187139856,0.18359834687338392,0.08593205745297634,0.18335407014532398,0.12596012782126587,-0.1565786682469731,-0.031218000539712333,-0.1485276908325644,-0.2202765260436535,0.04440716545520943],[0.216172904393738,0.10811086771304709,0.04907141647787584,-0.08466581043324396,0.02710556520658014,0.26213914286121354,0.012400715696174762,0.25447695923856256,0.09775477357310056,0.22621006479936834,0.09280791303259824,0.20877694084784146,0.01637835013424889,0.116914541727819],[-0.15441671311509939,-0.2050415962616099,-0.044215466657710305,0.08192882318647358,0.1177956743483902,-0.03432867457463261,0.28447381496381013,0.16371379796544425,0.26090277535887857,0.006837281972352754,0.03260540366743373,0.25481047971612647,-0.05824573700055097,0.3553648783350787],[1.0945485742880485,0.3200467741884143,0.09529482859455736,-1.006000696340094,-0.2687169270256883,0.29291158292918007,-0.44753257174465605,0.1589626266681364,0.009817877451583907,-0.35014628658511676,-0.1666963895078966,0.08659912072016956,-0.3231026490382328,0.9551031964911054],[-4.083858835275725,-0.9452726464528879,-0.7725250016762468,1.4928561040483626,0.47828103479792083,-0.5883355758770266,1.1230726670351368,0.32207532439788616,1.0140373713266058,2.0243694289086975,-2.102817767527247,0.26014352305844746,0.32373554599439797,-2.3507035050345655],[0.5088340460512595,0.24288914463893999,-0.08383165109986812,-0.2885843313461122,-0.030186288827672006,0.04121918217767354,-0.2707562050075506,0.0692671047777935,0.34892753729862225,0.0018524269385218149,-0.13197421829833278,0.3208183725819899,0.045303706564073495,0.24526347797877127],[3.0912913805125948,0.5921748848007388,0.759167973502058,-2.1235183911288003,-0.35733233152703664,-0.19763790380994575,-1.7292495720236287,-1.1889119157939787,-2.4494152143645516,-0.9909242930519262,2.727539958250026,-0.7165505570266203,2.205063489393755,-0.8305739176663933],[-2.3122447053964565,-0.6749140587978439,-0.448000371135269,0.97893803860842,0.4618165019305455,-0.5749267640565634,0.7235141045519453,-0.03279211159187525,0.62577148945408,1.1541803222973122,-0.7055170587619211,0.15909467429450597,0.1815012123671502,-1.1773676243182234]],[[0.007116808520409385,0.49177911116018375,0.4041392839646312,-1.0088300123070841,-0.4295348471363096,0.9970604448042928,0.3321255694084072,0.10262132119833874,-0.022273415692666828,-0.21701148985963084,0.21529594325882853,-0.9845351095003906,2.089123578076842,-0.5704410954393966,1.3080142052583086,1.154921153452958],[-0.14614384956650808,0.16101674834602867,0.33615858285023487,-0.5619142750101831,-0.23536127479549004,0.6355154620879823,0.4184225507103173,0.33294675024497883,0.22895503317167076,0.16396240339836568,-0.15902788369463244,-0.5273933213794579,1.2787267971236438,-0.09862707207548267,1.0328434877353716,0.642067894583444],[0.18227131042315498,0.39147193168848915,0.16511889534319604,-0.48033669005996366,-0.27194097694697555,0.6840656681673053,0.1463921755982651,0.11730605088514708,0.21316486697269454,0.13947526565886184,0.07649128497625148,-0.3398364275022218,0.7671118187592788,-0.21928566411948747,0.47791474237708625,0.5822527967065345],[0.2175658016927599,0.18644255543230392,-0.01833729713067633,0.375920234909031,0.49301949903810965,-0.07192061581258939,0.4356511671580476,0.19572799983714692,0.197709178428362,0.30618307667288364,0.37994429254436884,0.26510766295610655,-0.15645762293444426,0.26957948611976823,-0.223360657196065,0.055627081704454455],[-0.02649835977074386,0.05460763343758564,0.06983715647180574,-0.40585979002476863,-0.06578625176807072,0.5144041204756653,0.1805039400194185,0.15490153688717526,0.0036938536186784028,0.194425314217091,-0.09980265420271289,0.0715585056548468,0.8277656645292967,-0.22804313852680855,0.5128985568071769,0.29798560006767966],[0.09660321909753213,0.31827828720361784,0.27623328904742095,-0.02011714009826433,0.5551983030261738,-0.030215450790672813,0.2620724217070265,0.3423281209121694,0.27955916554614685,0.3998594470213086,0.35290150778966806,0.1607583564746756,0.3526523666151741,0.46621399511708195,-0.06497201810745135,0.15388055529078412],[0.19057282341902038,-0.11577738948268519,-0.26403705680171047,1.2196887527388427,0.39620950661695675,-2.064806511163528,-0.37144249468345714,-0.296158918983628,0.14036943894835485,0.47325665724199695,0.42187945628886053,1.19187969839633,-3.196444375723821,0.6722168092140178,-2.097745433738506,-1.614017220764865],[0.1896574203322289,-0.020128386043875332,0.10835366526811004,-0.12265603929483777,0.23771702715813356,0.4145220598535868,0.3206553654879768,0.27337035309420604,-0.07667404852394048,-0.022459895970207193,-0.04218021561018268,0.04066252895159446,0.39314984557593735,0.15007035043395173,0.29703887463178213,0.24907069804882068],[0.09991750851441858,-0.31408481620405326,-0.0999073608268358,0.3902730810550148,0.200984693713284,-1.0748083447580172,0.03677716913129056,-0.012737236257805814,-0.1276159785490064,-0.08460322430412824,-0.20998394431092285,0.687561524124465,-1.2800152400808222,0.13988002109350953,-1.2605916367336223,-0.8539102389368728],[-0.19433528312612786,0.17785046551312794,0.14295817791761206,-0.33627071964216004,0.0773591369080071,0.5668761167175709,-0.10999402116532388,0.30853939775383865,-0.0363305040926737,-0.16268071215466062,-0.03392385987740545,-0.16805897354449503,1.069757080961257,-0.2871037411548462,0.7288011437184019,0.5328660323612845],[0.2679654689881785,0.5389826934421762,0.2340468570515653,1.070711046354624,0.923785399907849,-3.0834788426916053,0.21172551134059694,-0.005169795801660812,0.5987305456946745,0.24093338136178882,0.3685437388592187,0.8930008893029558,-0.8460672563334433,0.33373473171490425,-3.3951469571960575,-0.3819089805139207],[0.11751547679982989,-0.04081727509849527,0.17405612737890705,-0.03442932826157679,-0.2203364246337389,0.5698794851386546,-0.0936153030482206,0.11761847087552671,-0.1535940425569906,0.00005192505698832931,0.252548108549107,-0.19009682814095208,1.0124106970068867,0.12118133673857023,0.4494756175927951,0.5099454391083657],[0.08042502554770826,0.18813864040830622,0.17407547087286337,-0.0282948963546993,0.29711701482980957,0.21695799773369007,0.160571430988145,0.2992196425399414,0.15626617919406022,-0.08481213039759507,0.11100730948820768,0.1064866647474385,0.380183464257203,0.22095561166572036,0.5108280138576542,0.1587750570080393],[0.036339046574133047,0.45014962828635724,0.22738440754554107,0.26221866788789916,0.2810229497866375,-0.013702950523682091,0.20576622217366886,0.26755711600963483,0.2257906931799261,0.26979857702568494,0.18356998241239594,0.2814508244610966,-0.0004648607570746119,0.3615372974857578,0.23160368872036077,0.13327602116607265],[0.20807614647773068,0.03251157121640319,0.3928750249283808,0.024446993439914903,0.4002611620617473,0.15713289145572235,0.4625966595096318,0.4461588681684761,0.208927806328194,0.14607499658798556,0.41914360233611053,0.4599938224615187,0.33469821896262936,0.46014652624879576,-0.07727987954961746,-0.016411438522991095],[0.14611519963472439,0.18630394057569297,0.42557253474519996,-0.25229600479007847,0.24486120624595115,0.45732529518214315,0.03295129439486735,0.04733378477747955,0.019299229301397585,-0.12590774549036168,0.3778860601819237,0.0017597127321994175,0.29951008625701103,-0.059087514282951455,0.484010766091526,0.1905809881258382]],[[-2.9207174279254113,-1.8363054976444255,-1.2196051333115228,0.680729551646038,-0.9986139390302206,0.38957708783037326,4.308357803961853,-0.5110869335578926,2.1162677151542275,-1.318621798523686,4.607309277118108,-1.0945907081640136,-0.38394368398247986,0.11353978765014999,0.1856149275122767,-0.5626267571559257]]],"biases":[[-0.10861964435180838,0.0576209276751262,0.2763728337973361,-0.22086712596176317,0.32843049774225475,-1.2748406483334294,-0.14986442235657904,-0.12624602325053294,0.17193827981390697,0.1694860388394378,0.2325643297150411,-0.02181319813190816,-0.11556421432469778,0.3007324221301298,-1.4399226872989015,-0.0460905151025672],[-0.38698113924351013,-0.2546161356238282,-0.03242804958786208,0.5499717480682662,0.08417769513882153,0.534097856040814,0.5509374021115965,0.3188012659701112,0.16261681125724783,0.11943977723083068,0.7303222285359066,-0.09711786416891983,0.35294816203521706,0.21991872749071717,0.1601058887061564,0.2988613139475347],[0.5137746409992705]]};

  function sigmoid(x) { return 1 / (1 + Math.exp(-x)); }

  function runNet(input) {
    let a = input;
    for (let l = 0; l < MODEL.weights.length; l++) {
      const W = MODEL.weights[l];
      const b = MODEL.biases[l];
      a = W.map((row, i) => sigmoid(b[i] + row.reduce((s, w, j) => s + w * a[j], 0)));
    }
    return a[0];
  }

  const PawML = {
    /**
     * @param {object} userPrefs  { wants_dog, preferred_size, preferred_energy,
     *                              apartment_friendly, has_kids, max_shedding,
     *                              alone_tolerance_needed }
     * @param {object} pet        pet object from app.js PETS array
     * @returns {number}          match score 0–1
     */
    predict(userPrefs, pet) {
      return runNet([...encodeUser(userPrefs), ...encodePet(pet)]);
    },

    /**
     * @param {object}   userPrefs
     * @param {object[]} pets
     * @returns {object[]} pets sorted desc by .mlScore
     */
    rankPets(userPrefs, pets) {
      return pets
        .map(p => ({ ...p, mlScore: this.predict(userPrefs, p) }))
        .sort((a, b) => b.mlScore - a.mlScore);
    },
  };

  global.PawML = PawML;
})(typeof window !== 'undefined' ? window : global);
