{
  "layers": [
    14,
    16,
    16,
    1
  ],
  "weights": [
    [
      [
        0.012129921472668113,
        -0.01144707144841305,
        -0.35855910047847134,
        0.02607745881473275,
        -0.2687638970318051,
        -0.48844978845708226,
        -0.13978359492884992,
        -0.02489199753619199,
        -0.1033104212639986,
        0.4378626687173831,
        -0.14181058495742974,
        -0.05174943005852408,
        -0.06344310638465993,
        -0.01804561861385742
      ],
      [
        -0.5270319865118788,
        0.11736488322260166,
        -0.6188487717187964,
        0.0007375285816968977,
        -0.06819468387907913,
        -0.5875424826862673,
        -0.3694412282144521,
        -0.893279919102705,
        -0.6235571625560601,
        -0.055878372547597074,
        0.2927776390961785,
        -0.25559259218165725,
        0.0817846430109044,
        0.41472980020878397
      ],
      [
        -2.400728194839168,
        0.40987364481109567,
        -2.2071929052677213,
        0.13013446859440203,
        0.4906282969812879,
        -1.9536859752148101,
        0.07408290012442796,
        -2.2205378981522417,
        -0.0607827217049655,
        -2.998729670051867,
        0.6694003365385911,
        -1.894594108506382,
        -0.08602829030068164,
        1.7863997862428287
      ],
      [
        -0.861342033290075,
        -0.1723772098710769,
        -1.1526170994186482,
        0.41035031525253923,
        0.6417967563800593,
        -1.7216951787210792,
        -0.385230687953188,
        -1.1890081292952803,
        -1.1397530878379682,
        -0.618805418570931,
        0.5693139112950658,
        -1.0230692615127233,
        -0.44390963092638314,
        1.2390047599033391
      ],
      [
        -0.19067849209034787,
        0.4270147307029159,
        -1.0168161969966047,
        -0.7409696640924848,
        0.4327752148929406,
        -1.4245324529896135,
        -0.3054343940922912,
        -0.8690235161705073,
        -0.7376093029841413,
        0.7379048187724594,
        -0.225842805733586,
        -1.1447278484636327,
        0.03423685200623467,
        -0.16173564558206788
      ],
      [
        -0.3054836810147511,
        0.10338142067049913,
        0.17710950846887052,
        0.09897215431880892,
        0.3511935711568807,
        0.11803124158861529,
        0.108804098745698,
        0.30750970230048025,
        0.30357254748353285,
        0.26100092887748494,
        0.3149972696296553,
        0.034871528521011975,
        -0.19015828368696575,
        -0.18143229675923797
      ],
      [
        -0.5342417537792679,
        -0.12146150952457681,
        -1.3880580890340337,
        -0.42437351263349765,
        0.5637855308288353,
        -1.749258919318945,
        -0.037296214499999286,
        -1.0999434174457534,
        -0.8863459585947133,
        0.5944656378650597,
        0.22781494425895515,
        -1.5076867252991528,
        -0.6509226501747267,
        -0.12017420628893748
      ],
      [
        -0.07930629075627334,
        0.09149917166966232,
        0.26989461449596647,
        0.08419658064463229,
        -0.09488783995514773,
        0.288613374249224,
        0.24851126733826318,
        0.37203738054361224,
        0.14656132086339818,
        -0.33296010060214937,
        0.011689842340145995,
        0.2511504984762952,
        -0.29886763722450665,
        -0.19738043110973932
      ],
      [
        -0.2680540417683555,
        -0.28234508013240905,
        -0.10284997198807792,
        -0.14078163855832823,
        -0.26330364276039686,
        -0.08470619891548808,
        0.18759616438423954,
        0.17703885234827263,
        -0.035963887776908204,
        -0.3444316912953812,
        0.20755570679079127,
        0.48157747869284284,
        -0.06318373312313899,
        -0.1611039330255094
      ],
      [
        -0.026681660890262474,
        0.07178388923364659,
        -0.24912901716303382,
        0.4526582463350906,
        0.05708304779621254,
        -0.18180219831950958,
        0.11588323612415033,
        -0.1301678351231005,
        0.009827665274593991,
        0.12560856964621706,
        -0.06844302330928706,
        0.15128583137449822,
        0.39190824193287555,
        0.028242105288985256
      ],
      [
        1.4094208282356147,
        -1.4085774312107262,
        -0.03675681417274106,
        -0.3682506095780707,
        -0.29975121656857934,
        0.32877805488747824,
        0.7583687246586268,
        -0.8579690080241141,
        -0.28336707488939933,
        -1.6068694658726075,
        -1.123114413353078,
        -1.1846742637086598,
        0.43151168838481185,
        0.5320201194207735
      ],
      [
        1.9912940986020733,
        -0.7380700527956383,
        0.7433771018295225,
        -1.2712339974640414,
        -0.8394622334700063,
        2.2077089904135305,
        0.0418013968310074,
        -0.9687532028930201,
        -0.5967507255860641,
        -3.2809442501422357,
        -0.5860592742130685,
        -1.5284505918458544,
        0.3999739740333644,
        1.5019186780563905
      ],
      [
        -0.07931568939673002,
        0.22478894101437616,
        -0.12260216026953234,
        0.30162048664122987,
        0.13321251133362766,
        -0.014339940188205762,
        -0.019274271226945736,
        0.12184852180129442,
        0.09548009335278673,
        0.18077076246357324,
        0.11600002758551817,
        -0.06709453364663738,
        0.1532580073987469,
        0.453142695559012
      ],
      [
        -0.2910169650492104,
        0.08310754185033574,
        -1.1637669863455906,
        -0.19823152779581224,
        0.10349950809748379,
        -1.474998330125976,
        -0.4845819880607009,
        -0.8794588203875473,
        -0.7814540233711023,
        0.6461007621106293,
        0.08364615714776871,
        -1.107204418056416,
        -0.2903006809613353,
        -0.2678140329251548
      ],
      [
        -0.5968638293188744,
        -0.026296064026910447,
        -0.6270760659230151,
        -0.09745494563047588,
        -0.21919522597559693,
        -0.38599607449035195,
        0.23171395847041346,
        0.005934890769269894,
        0.35786157508196514,
        -0.5994095329374384,
        0.03471493404160813,
        0.2975348028509928,
        0.15845397733881497,
        0.03182701132851359
      ],
      [
        1.9078465370606768,
        1.41684039561103,
        1.4269356239091069,
        -0.5375395525872165,
        2.3417574612067495,
        0.49492299275892077,
        -0.8510765082622467,
        -2.969620465039348,
        -1.0808291299121855,
        -0.6357035931993439,
        2.65970232606682,
        -2.6960570873158693,
        -0.028764198256195188,
        1.3657774839847558
      ]
    ],
    [
      [
        0.36743938738221504,
        0.391661626974005,
        -1.6691395681552068,
        0.9461462181447856,
        0.8056598698832295,
        -0.10693286437462621,
        0.9685689116152207,
        -0.26471216775170536,
        -0.13531410557645798,
        0.09368041942660073,
        1.0726251871085037,
        1.112543346400649,
        0.12405664297234975,
        0.7218501784815682,
        -0.13494928224305436,
        -1.5244374807588001
      ],
      [
        0.18226118814942655,
        0.4199483197184552,
        -1.1651250515415643,
        0.5227427188803135,
        0.667940295907036,
        -0.14625694818533122,
        0.8063987122071467,
        -0.3422226741007703,
        -0.16080927203077894,
        0.2101361951969326,
        0.6365611816507848,
        0.6489181003979267,
        0.08361389488077732,
        0.6908442647055955,
        -0.16810760185110557,
        -1.0861276085057778
      ],
      [
        0.014164642508732013,
        0.14006284248519552,
        -0.525796650447419,
        0.31957547539961595,
        0.32631760110339614,
        0.20018849474046174,
        0.06145478459342458,
        -0.21834091503363878,
        0.1541535978114415,
        -0.08360620015556411,
        -0.043734500138489285,
        0.08097872208599609,
        0.0923614385628759,
        -0.08783740835423752,
        0.10866597084303638,
        -0.22083526163302689
      ],
      [
        0.08385079894839839,
        -0.15300127560132223,
        0.5749589203761901,
        0.14261480481669173,
        0.0694762969413512,
        0.22180964624271488,
        -0.1691651418494122,
        -0.15748907088912834,
        0.17435250337575783,
        -0.09113370679098648,
        0.019503392063442353,
        -0.275372770994932,
        -0.09458589489391042,
        -0.07828335473864163,
        0.30101200071715545,
        0.34026937492987896
      ],
      [
        0.2596136737084154,
        0.2574768565852601,
        -1.5151431212681958,
        0.8716300243262236,
        0.7999830982806817,
        -0.2291836719027171,
        0.937609817880675,
        -0.17441342551676625,
        -0.24867158634565534,
        0.25519258750924184,
        0.637483489670301,
        1.2157405586002832,
        0.009972934485457361,
        0.8586808804489008,
        -0.42436637367973307,
        -1.2931822227863123
      ],
      [
        -0.44054289073550434,
        -0.3611761913188856,
        2.2055239423899833,
        -1.273398124681859,
        -1.0512962520832734,
        0.05903352645043587,
        -1.2741798845948886,
        0.14998299752878952,
        -0.11943502104600662,
        -0.3811523244102097,
        -1.1430806459803164,
        -1.6529164135872825,
        -0.3820595803467774,
        -0.9637655775975077,
        0.1814545719237647,
        2.1343720415939975
      ],
      [
        0.15862117851144464,
        -0.06359093200431988,
        0.8522884040327188,
        -0.4351546060381475,
        -0.13433491907171363,
        0.28228827876334056,
        -0.42185229238496585,
        -0.06197814478647055,
        0.16718379874295605,
        0.13594428438630599,
        -0.37437354607012696,
        -0.3966601824245282,
        -0.19823306961730636,
        -0.33450270772590396,
        -0.029430434288988908,
        0.4582485631353905
      ],
      [
        0.07500808161973897,
        0.0785444060766431,
        -0.14296673231077342,
        0.32317200729172796,
        0.018426196743657124,
        0.2685055599365999,
        -0.06549414953827945,
        0.01296010633357448,
        0.20571810945833027,
        0.004249686984438983,
        0.0989960803908958,
        0.10987775501012838,
        0.11780351899886209,
        0.08301135741926204,
        0.27615149400702677,
        0.05438210866880427
      ],
      [
        0.30257938122313555,
        -0.11588224635314791,
        0.406037435602193,
        -0.10722156507173847,
        -0.2267057648161788,
        0.1000466458257316,
        0.17038434918206927,
        0.18922171804570515,
        -0.12120551089328264,
        -0.02021819234720723,
        0.10088453083215293,
        -0.08212456970934326,
        0.0609797936399564,
        0.24583111178863815,
        0.09440310149528348,
        0.2307907572461993
      ],
      [
        0.08754906416514163,
        -0.029372390524055644,
        -0.6234022626167491,
        0.10540237857100472,
        0.3125224710064672,
        0.01360654005696452,
        0.4704200693962104,
        -0.16927605174205845,
        0.1328939893619262,
        0.060532512083229496,
        0.14817000789525395,
        0.6205976024583215,
        0.21203807400245211,
        0.17630122664855538,
        -0.22288686412695458,
        -0.5695053044556474
      ],
      [
        0.11208310747672298,
        0.02497571899723213,
        -0.07733096901415704,
        0.067577470335551,
        -0.20672427177333938,
        -0.07289766974576785,
        0.08248686366281398,
        -0.11532739670210483,
        0.02174699497591892,
        0.2649235148005505,
        0.10774798036534923,
        -0.04186792105076455,
        0.23317821963327076,
        0.07262717758199795,
        0.18322904031097237,
        0.487363933408404
      ],
      [
        -0.35028866369706363,
        -0.3443062233356425,
        1.31714412803286,
        -0.2981121842616946,
        -0.4537043447739661,
        -0.09530512639603088,
        -0.5191347012876619,
        0.22244652629958175,
        0.06681167838060685,
        -0.07831478119626993,
        -0.4198001271642453,
        -0.917862641725039,
        -0.2373796131436969,
        -0.20813071773832817,
        0.1121874035650491,
        0.9736802479445642
      ],
      [
        0.09864733612418472,
        0.4356258713230363,
        -1.1548110590053398,
        0.5142946364864731,
        0.23345616885744142,
        -0.027712228960952563,
        0.6750213375168833,
        0.09573296150156461,
        0.09240850741068324,
        -0.026328713129679233,
        0.25013262218511706,
        0.7994469334278593,
        0.14173580461497687,
        0.27008806085531534,
        -0.3147148805503373,
        -0.8783091244761516
      ],
      [
        0.1299804323543489,
        0.2682695977068894,
        0.00011574569086968816,
        0.2948165340193271,
        -0.09661729593415906,
        0.17692438869369906,
        0.06281484257888342,
        0.02562017838419581,
        -0.023033426869543225,
        -0.16250414439453134,
        -0.1909500822551617,
        -0.023056581321324328,
        0.30541270408612536,
        0.15950385698768946,
        -0.12178665790649511,
        0.13698918224954704
      ],
      [
        0.03721566653424666,
        0.22542565333184117,
        -0.8034989582566288,
        0.6198607185537538,
        0.12617904054150436,
        -0.1627787778982161,
        0.6002363283086387,
        -0.3752564866524627,
        -0.169958307862776,
        0.3175656652169978,
        0.08730600163272086,
        0.5750945662548488,
        -0.0778216875165674,
        0.39537531956372685,
        -0.012710204835051161,
        -0.7191097307037767
      ],
      [
        -0.007405704991277205,
        -0.45580638810087176,
        1.5875828131791816,
        -1.0967426166978953,
        -0.8442668358420359,
        0.05231376204153504,
        -0.8788538014772985,
        -0.003761900953768642,
        0.08943064327799666,
        -0.2634975591030556,
        -1.0591705543280685,
        -1.4535597071575208,
        -0.06428292915264046,
        -0.7500555644763177,
        0.3706513222800651,
        1.7248276617534495
      ]
    ],
    [
      [
        -2.9733031963841268,
        -2.141871434933846,
        -0.5529081255441469,
        0.6298761108853898,
        -2.7733712631831864,
        3.894451246204309,
        1.1987556523592187,
        -0.149419146647324,
        0.31374695905736605,
        -1.0899126106536001,
        0.166462700896088,
        1.9634727662033138,
        -1.7609667240823037,
        -0.011070977219667653,
        -1.419552910538149,
        3.1541407844733373
      ]
    ]
  ],
  "biases": [
    [
      -0.05060999246972016,
      -0.013642675556674061,
      0.17866599870162791,
      -0.12202793955031091,
      -0.1740938347307919,
      0.17825605375550657,
      -0.2181585036088366,
      0.3678312763782777,
      0.07605377567819571,
      -0.12665165434133982,
      -0.8747625089784045,
      -0.8214513070372949,
      0.009900441793069089,
      -0.23818915794767304,
      -0.40332170092012504,
      0.44646521078168705
    ],
    [
      0.28453479769768886,
      -0.03146101257012217,
      0.0005872453753764727,
      0.09956342246639914,
      0.01911811916894215,
      -0.19591436573628307,
      0.07098823039196633,
      0.3326320976360387,
      0.3097711289813953,
      0.28694248305511494,
      0.33080109215992815,
      -0.39023877018634046,
      0.09799595195530122,
      -0.10551985479851653,
      0.21462340047387482,
      -0.2873548519860772
    ],
    [
      -0.1860442080368467
    ]
  ]
}